<?xml version="1.0"?>
<opencv_storage>
<cascade>
  <stageType>BOOST</stageType>
  <featureType>HAAR</featureType>
  <height>35</height>
  <width>24</width>
  <stageParams>
    <boostType>GAB</boostType>
    <minHitRate>9.9500000476837158e-01</minHitRate>
    <maxFalseAlarm>5.0000000000000000e-01</maxFalseAlarm>
    <weightTrimRate>9.4999999999999996e-01</weightTrimRate>
    <maxDepth>1</maxDepth>
    <maxWeakCount>100</maxWeakCount></stageParams>
  <featureParams>
    <maxCatCount>0</maxCatCount>
    <featSize>1</featSize>
    <mode>BASIC</mode></featureParams>
  <stageNum>1</stageNum>
  <stages>
    <!-- stage 0 -->
    <_>
      <maxWeakCount>3</maxWeakCount>
      <stageThreshold>1.</stageThreshold>
      <weakClassifiers>
        <_>
          <internalNodes>
            0 -1 0 0.35</internalNodes>
          <leafValues>
           -1. 0.5</leafValues></_>
        <_>
          <internalNodes>
            0 -1 1 -0.15</internalNodes>
          <leafValues>
           0.5 -1.</leafValues></_>
        <_>
          <internalNodes>
            0 -1 2 0.3</internalNodes>
          <leafValues>
           0 -10.</leafValues></_></weakClassifiers></_></stages>
  <features>
    <_>
      <rects>
        <_>
          2 10 18 15 1.</_>
        <_>
          10 10 7 15 -2.</_></rects>
      </_>
    <_>
      <rects>
        <_>
          6 2 8 31 1.</_>
        <_>
          6 10 4 23 -2.</_></rects>
      </_>
    <_>
      <rects>
        <_>
          8 10 6 15 1</_></rects>
      </_></features></cascade>
</opencv_storage>
