<?xml version="1.0"?>
<opencv_storage>
<cascade>
  <stageType>BOOST</stageType>
  <featureType>HAAR</featureType>
  <height>35</height>
  <width>24</width>
  <stageParams>
    <boostType>GAB</boostType>
    <minHitRate>9.9500000476837158e-01</minHitRate>
    <maxFalseAlarm>5.0000000000000000e-01</maxFalseAlarm>
    <weightTrimRate>9.4999999999999996e-01</weightTrimRate>
    <maxDepth>1</maxDepth>
    <maxWeakCount>100</maxWeakCount></stageParams>
  <featureParams>
    <maxCatCount>0</maxCatCount>
    <featSize>1</featSize>
    <mode>BASIC</mode></featureParams>
  <stageNum>1</stageNum>
  <stages>
    <!-- stage 0 -->
    <_>
      <maxWeakCount>3</maxWeakCount>
      <stageThreshold>1.</stageThreshold>
      <weakClassifiers>
        <_>
          <internalNodes>
            0 -1 0 -0.1</internalNodes>
          <leafValues>
           0.5 -0.7</leafValues></_>
        <_>
          <internalNodes>
            0 -1 1 -0.07</internalNodes>
          <leafValues>
           0.5 -0.7</leafValues></_>
        <_>
          <internalNodes>
            0 -1 2 0.02</internalNodes>
          <leafValues>
           0.5 -0.7</leafValues></_>
        <_>
          <internalNodes>
            0 -1 3 0.15</internalNodes>
          <leafValues>
           -0.2 0.2</leafValues></_>
        <_>
          <internalNodes>
            0 -1 4 0.6</internalNodes>
          <leafValues>
           -0.2 0.2</leafValues></_>
        <_>
          <internalNodes>
            0 -1 5 0.03</internalNodes>
          <leafValues>
           -0.2 0.2</leafValues></_></weakClassifiers></_></stages>
  <features>
    <_>
      <rects>
        <_>
          2 2 20 15 1.</_>
        <_>
          6 6 12 11 -2.</_></rects>
      </_>
    <_>
      <rects>
        <_>
          2 26 10 9 2.</_>
        <_>
          12 17 10 9 2.</_>
        <_>
          2 17 20 18 -1.</_></rects>
      </_>
    <_>
      <rects>
        <_>
          2 30 20 5 1</_>
        <_>
          12 25 10 5 -1</_></rects>
      </_>
    <_>
      <rects>
        <_>
          16 22 8 7 1</_>
        <_>
          12 26 4 3 1</_></rects>
      </_>
    <_>
      <rects>
        <_>
          2 10 4 20 1</_>
        <_>
          6 8 4 17 1</_>
        <_>
          10 6 4 14 1</_></rects>
      </_>
    <_>
      <rects>
        <_>
          14 2 4 18 1</_>
        <_>
          14 6 4 8 -2</_>
        <_>
          18 6 4 8 1</_></rects>
      </_></features></cascade>
</opencv_storage>
