<?xml version="1.0"?>
<opencv_storage>
<cascade>
  <stageType>BOOST</stageType>
  <featureType>HAAR</featureType>
  <height>48</height>
  <width>24</width>
  <stageParams>
    <boostType>GAB</boostType>
    <minHitRate>9.9500000476837158e-01</minHitRate>
    <maxFalseAlarm>5.0000000000000000e-01</maxFalseAlarm>
    <weightTrimRate>9.4999999999999996e-01</weightTrimRate>
    <maxDepth>1</maxDepth>
    <maxWeakCount>100</maxWeakCount></stageParams>
  <featureParams>
    <maxCatCount>0</maxCatCount>
    <featSize>1</featSize>
    <mode>BASIC</mode></featureParams>
  <stageNum>6</stageNum>
  <stages>
    <!-- stage 0 -->
    <_>
      <maxWeakCount>3</maxWeakCount>
      <stageThreshold>-5.1157748699188232e-01</stageThreshold>
      <weakClassifiers>
        <_>
          <internalNodes>
            0 -1 3 -1.0426498949527740e-02</internalNodes>
          <leafValues>
            7.9487180709838867e-01 -7.4603176116943359e-01</leafValues></_>
        <_>
          <internalNodes>
            0 -1 11 -2.3402217775583267e-02</internalNodes>
          <leafValues>
            8.2709759473800659e-01 -5.4197847843170166e-01</leafValues></_>
        <_>
          <internalNodes>
            0 -1 0 -4.7765215858817101e-03</internalNodes>
          <leafValues>
            9.3735134601593018e-01 -5.9264332056045532e-01</leafValues></_></weakClassifiers></_>
    <!-- stage 1 -->
    <_>
      <maxWeakCount>3</maxWeakCount>
      <stageThreshold>-3.5146671533584595e-01</stageThreshold>
      <weakClassifiers>
        <_>
          <internalNodes>
            0 -1 10 7.1210414171218872e-03</internalNodes>
          <leafValues>
            -6.3532763719558716e-01 8.5507243871688843e-01</leafValues></_>
        <_>
          <internalNodes>
            0 -1 2 -7.2671175003051758e-03</internalNodes>
          <leafValues>
            8.3168923854827881e-01 -4.7369131445884705e-01</leafValues></_>
        <_>
          <internalNodes>
            0 -1 14 -2.6047290302813053e-03</internalNodes>
          <leafValues>
            9.0697586536407471e-01 -5.4782831668853760e-01</leafValues></_></weakClassifiers></_>
    <!-- stage 2 -->
    <_>
      <maxWeakCount>2</maxWeakCount>
      <stageThreshold>-4.6157300472259521e-02</stageThreshold>
      <weakClassifiers>
        <_>
          <internalNodes>
            0 -1 5 -2.2847549989819527e-03</internalNodes>
          <leafValues>
            6.3172805309295654e-01 -7.6642334461212158e-01</leafValues></_>
        <_>
          <internalNodes>
            0 -1 12 2.4458719417452812e-03</internalNodes>
          <leafValues>
            -5.7934468984603882e-01 7.2026604413986206e-01</leafValues></_></weakClassifiers></_>
    <!-- stage 3 -->
    <_>
      <maxWeakCount>3</maxWeakCount>
      <stageThreshold>-2.3229981958866119e-01</stageThreshold>
      <weakClassifiers>
        <_>
          <internalNodes>
            0 -1 7 9.3515038490295410e-02</internalNodes>
          <leafValues>
            -5.0769233703613281e-01 8.9029538631439209e-01</leafValues></_>
        <_>
          <internalNodes>
            0 -1 9 3.8184240460395813e-02</internalNodes>
          <leafValues>
            -3.5767766833305359e-01 9.1819357872009277e-01</leafValues></_>
        <_>
          <internalNodes>
            0 -1 13 -1.1387083679437637e-02</internalNodes>
          <leafValues>
            6.3961982727050781e-01 -6.4280110597610474e-01</leafValues></_></weakClassifiers></_>
    <!-- stage 4 -->
    <_>
      <maxWeakCount>2</maxWeakCount>
      <stageThreshold>2.2620090842247009e-01</stageThreshold>
      <weakClassifiers>
        <_>
          <internalNodes>
            0 -1 1 -7.2129582986235619e-04</internalNodes>
          <leafValues>
            7.9020977020263672e-01 -6.2463343143463135e-01</leafValues></_>
        <_>
          <internalNodes>
            0 -1 8 8.9919315651059151e-03</internalNodes>
          <leafValues>
            -4.5122095942497253e-01 8.5083436965942383e-01</leafValues></_></weakClassifiers></_>
    <!-- stage 5 -->
    <_>
      <maxWeakCount>2</maxWeakCount>
      <stageThreshold>-1.2194675207138062e-01</stageThreshold>
      <weakClassifiers>
        <_>
          <internalNodes>
            0 -1 4 -1.9092457368969917e-02</internalNodes>
          <leafValues>
            7.5824177265167236e-01 -5.4802262783050537e-01</leafValues></_>
        <_>
          <internalNodes>
            0 -1 6 5.0631025806069374e-03</internalNodes>
          <leafValues>
            4.2607584595680237e-01 -1.</leafValues></_></weakClassifiers></_></stages>
  <features>
    <_>
      <rects>
        <_>
          0 12 3 25 -1.</_>
        <_>
          1 12 1 25 3.</_></rects>
      <tilted>0</tilted></_>
    <_>
      <rects>
        <_>
          0 36 4 1 -1.</_>
        <_>
          2 36 2 1 2.</_></rects>
      <tilted>0</tilted></_>
    <_>
      <rects>
        <_>
          1 7 3 32 -1.</_>
        <_>
          2 7 1 32 3.</_></rects>
      <tilted>0</tilted></_>
    <_>
      <rects>
        <_>
          1 39 12 8 -1.</_>
        <_>
          1 39 6 4 2.</_>
        <_>
          7 43 6 4 2.</_></rects>
      <tilted>0</tilted></_>
    <_>
      <rects>
        <_>
          2 0 2 18 -1.</_>
        <_>
          2 9 2 9 2.</_></rects>
      <tilted>0</tilted></_>
    <_>
      <rects>
        <_>
          2 3 6 8 -1.</_>
        <_>
          4 3 2 8 3.</_></rects>
      <tilted>0</tilted></_>
    <_>
      <rects>
        <_>
          4 5 16 7 -1.</_>
        <_>
          12 5 8 7 2.</_></rects>
      <tilted>0</tilted></_>
    <_>
      <rects>
        <_>
          6 3 12 33 -1.</_>
        <_>
          10 3 4 33 3.</_></rects>
      <tilted>0</tilted></_>
    <_>
      <rects>
        <_>
          12 1 5 6 -1.</_>
        <_>
          12 4 5 3 2.</_></rects>
      <tilted>0</tilted></_>
    <_>
      <rects>
        <_>
          14 14 6 18 -1.</_>
        <_>
          16 14 2 18 3.</_></rects>
      <tilted>0</tilted></_>
    <_>
      <rects>
        <_>
          16 2 6 4 -1.</_>
        <_>
          19 2 3 4 2.</_></rects>
      <tilted>0</tilted></_>
    <_>
      <rects>
        <_>
          18 7 6 34 -1.</_>
        <_>
          20 7 2 34 3.</_></rects>
      <tilted>0</tilted></_>
    <_>
      <rects>
        <_>
          20 30 2 18 -1.</_>
        <_>
          20 30 1 9 2.</_>
        <_>
          21 39 1 9 2.</_></rects>
      <tilted>0</tilted></_>
    <_>
      <rects>
        <_>
          21 0 3 22 -1.</_>
        <_>
          21 11 3 11 2.</_></rects>
      <tilted>0</tilted></_>
    <_>
      <rects>
        <_>
          21 16 2 10 -1.</_>
        <_>
          22 16 1 10 2.</_></rects>
      <tilted>0</tilted></_></features></cascade>
</opencv_storage>
