<?xml version="1.0"?>
<opencv_storage>
<cascade>
  <stageType>BOOST</stageType>
  <featureType>HAAR</featureType>
  <height>48</height>
  <width>24</width>
  <stageParams>
    <boostType>GAB</boostType>
    <minHitRate>9.9500000476837158e-01</minHitRate>
    <maxFalseAlarm>5.0000000000000000e-01</maxFalseAlarm>
    <weightTrimRate>9.4999999999999996e-01</weightTrimRate>
    <maxDepth>1</maxDepth>
    <maxWeakCount>100</maxWeakCount></stageParams>
  <featureParams>
    <maxCatCount>0</maxCatCount>
    <featSize>1</featSize>
    <mode>BASIC</mode></featureParams>
  <stageNum>3</stageNum>
  <stages>
    <!-- stage 0 -->
    <_>
      <maxWeakCount>3</maxWeakCount>
      <stageThreshold>-1.1612017154693604e+00</stageThreshold>
      <weakClassifiers>
        <_>
          <internalNodes>
            0 -1 3 2.7019944787025452e-01</internalNodes>
          <leafValues>
            -9.5075237751007080e-01 1.</leafValues></_>
        <_>
          <internalNodes>
            0 -1 1 7.4353568255901337e-02</internalNodes>
          <leafValues>
            -9.6250820159912109e-01 7.9854857921600342e-01</leafValues></_>
        <_>
          <internalNodes>
            0 -1 4 -1.1869523674249649e-02</internalNodes>
          <leafValues>
            7.5205886363983154e-01 -8.5001194477081299e-01</leafValues></_></weakClassifiers></_>
    <!-- stage 1 -->
    <_>
      <maxWeakCount>3</maxWeakCount>
      <stageThreshold>-1.0473201274871826e+00</stageThreshold>
      <weakClassifiers>
        <_>
          <internalNodes>
            0 -1 7 2.4283984676003456e-03</internalNodes>
          <leafValues>
            -9.5844876766204834e-01 6.1290323734283447e-01</leafValues></_>
        <_>
          <internalNodes>
            0 -1 8 -1.4499816112220287e-02</internalNodes>
          <leafValues>
            8.2521045207977295e-01 -8.6240047216415405e-01</leafValues></_>
        <_>
          <internalNodes>
            0 -1 6 1.4622672460973263e-03</internalNodes>
          <leafValues>
            -7.9782283306121826e-01 7.8516286611557007e-01</leafValues></_></weakClassifiers></_>
    <!-- stage 2 -->
    <_>
      <maxWeakCount>3</maxWeakCount>
      <stageThreshold>-1.0840429067611694e+00</stageThreshold>
      <weakClassifiers>
        <_>
          <internalNodes>
            0 -1 0 7.4963159859180450e-02</internalNodes>
          <leafValues>
            -9.5580112934112549e-01 6.5517240762710571e-01</leafValues></_>
        <_>
          <internalNodes>
            0 -1 5 1.2525412440299988e-01</internalNodes>
          <leafValues>
            -8.9772927761077881e-01 8.8832926750183105e-01</leafValues></_>
        <_>
          <internalNodes>
            0 -1 2 -1.9083051010966301e-02</internalNodes>
          <leafValues>
            7.6948750019073486e-01 -8.2547223567962646e-01</leafValues></_></weakClassifiers></_></stages>
  <features>
    <_>
      <rects>
        <_>
          1 0 14 18 -1.</_>
        <_>
          1 0 7 9 2.</_>
        <_>
          8 9 7 9 2.</_></rects>
      <tilted>0</tilted></_>
    <_>
      <rects>
        <_>
          1 11 9 22 -1.</_>
        <_>
          4 11 3 22 3.</_></rects>
      <tilted>0</tilted></_>
    <_>
      <rects>
        <_>
          2 0 2 18 -1.</_>
        <_>
          2 9 2 9 2.</_></rects>
      <tilted>0</tilted></_>
    <_>
      <rects>
        <_>
          3 12 18 24 -1.</_>
        <_>
          9 12 6 24 3.</_></rects>
      <tilted>0</tilted></_>
    <_>
      <rects>
        <_>
          3 39 8 8 -1.</_>
        <_>
          3 39 4 4 2.</_>
        <_>
          7 43 4 4 2.</_></rects>
      <tilted>0</tilted></_>
    <_>
      <rects>
        <_>
          14 8 9 31 -1.</_>
        <_>
          17 8 3 31 3.</_></rects>
      <tilted>0</tilted></_>
    <_>
      <rects>
        <_>
          18 41 2 4 -1.</_>
        <_>
          18 41 1 2 2.</_>
        <_>
          19 43 1 2 2.</_></rects>
      <tilted>0</tilted></_>
    <_>
      <rects>
        <_>
          19 3 2 5 -1.</_>
        <_>
          20 3 1 5 2.</_></rects>
      <tilted>0</tilted></_>
    <_>
      <rects>
        <_>
          20 12 3 20 -1.</_>
        <_>
          21 12 1 20 3.</_></rects>
      <tilted>0</tilted></_></features></cascade>
</opencv_storage>
