<?xml version="1.0"?>
<opencv_storage>
<cascade>
  <stageType>BOOST</stageType>
  <featureType>HAAR</featureType>
  <height>48</height>
  <width>24</width>
  <stageParams>
    <boostType>GAB</boostType>
    <minHitRate>9.9500000476837158e-01</minHitRate>
    <maxFalseAlarm>5.0000000000000000e-01</maxFalseAlarm>
    <weightTrimRate>9.4999999999999996e-01</weightTrimRate>
    <maxDepth>1</maxDepth>
    <maxWeakCount>100</maxWeakCount></stageParams>
  <featureParams>
    <maxCatCount>0</maxCatCount>
    <featSize>1</featSize>
    <mode>BASIC</mode></featureParams>
  <stageNum>3</stageNum>
  <stages>
    <!-- stage 0 -->
    <_>
      <maxWeakCount>2</maxWeakCount>
      <stageThreshold>-2.1625043451786041e-01</stageThreshold>
      <weakClassifiers>
        <_>
          <internalNodes>
            0 -1 0 -9.8183713853359222e-03</internalNodes>
          <leafValues>
            6.4705884456634521e-01 -9.3830335140228271e-01</leafValues></_>
        <_>
          <internalNodes>
            0 -1 2 -1.7663786187767982e-02</internalNodes>
          <leafValues>
            8.9059585332870483e-01 -8.6330926418304443e-01</leafValues></_></weakClassifiers></_>
    <!-- stage 1 -->
    <_>
      <maxWeakCount>2</maxWeakCount>
      <stageThreshold>-3.2514414191246033e-01</stageThreshold>
      <weakClassifiers>
        <_>
          <internalNodes>
            0 -1 6 4.4422045350074768e-02</internalNodes>
          <leafValues>
            -9.2893403768539429e-01 7.9310345649719238e-01</leafValues></_>
        <_>
          <internalNodes>
            0 -1 3 -5.6903581134974957e-03</internalNodes>
          <leafValues>
            6.0378986597061157e-01 -9.0603911876678467e-01</leafValues></_></weakClassifiers></_>
    <!-- stage 2 -->
    <_>
      <maxWeakCount>3</maxWeakCount>
      <stageThreshold>-9.5815658569335938e-01</stageThreshold>
      <weakClassifiers>
        <_>
          <internalNodes>
            0 -1 1 3.0422681570053101e-01</internalNodes>
          <leafValues>
            -9.0074443817138672e-01 1.</leafValues></_>
        <_>
          <internalNodes>
            0 -1 5 -3.8027986884117126e-02</internalNodes>
          <leafValues>
            9.2074388265609741e-01 -8.7979876995086670e-01</leafValues></_>
        <_>
          <internalNodes>
            0 -1 4 2.4830950424075127e-03</internalNodes>
          <leafValues>
            -7.5744175910949707e-01 8.2238662242889404e-01</leafValues></_></weakClassifiers></_></stages>
  <features>
    <_>
      <rects>
        <_>
          1 6 2 36 -1.</_>
        <_>
          2 6 1 36 2.</_></rects>
      <tilted>0</tilted></_>
    <_>
      <rects>
        <_>
          2 11 18 25 -1.</_>
        <_>
          8 11 6 25 3.</_></rects>
      <tilted>0</tilted></_>
    <_>
      <rects>
        <_>
          7 41 10 6 -1.</_>
        <_>
          7 44 10 3 2.</_></rects>
      <tilted>0</tilted></_>
    <_>
      <rects>
        <_>
          14 1 8 6 -1.</_>
        <_>
          14 1 4 3 2.</_>
        <_>
          18 4 4 3 2.</_></rects>
      <tilted>0</tilted></_>
    <_>
      <rects>
        <_>
          16 4 6 1 -1.</_>
        <_>
          19 4 3 1 2.</_></rects>
      <tilted>0</tilted></_>
    <_>
      <rects>
        <_>
          19 10 4 26 -1.</_>
        <_>
          21 10 2 26 2.</_></rects>
      <tilted>0</tilted></_>
    <_>
      <rects>
        <_>
          20 3 4 38 -1.</_>
        <_>
          22 3 2 38 2.</_></rects>
      <tilted>0</tilted></_></features></cascade>
</opencv_storage>
